digraph Tree {
node [shape=box, style="rounded", color="black", fontname="helvetica"] ;
edge [fontname="helvetica"] ;
0 [label="year <= 2007.5\nsquared_error = 163759.4\nsamples = 26\nvalue = 329.0"] ;
1 [label="year <= 2000.0\nsquared_error = 18005.8\nsamples = 19\nvalue = 94.5"] ;
0 -> 1 [labeldistance=2.5, labelangle=45, headlabel="True"] ;
2 [label="year <= 1996.0\nsquared_error = 441.6\nsamples = 14\nvalue = 23.1"] ;
1 -> 2 ;
3 [label="year <= 1971.0\nsquared_error = 204.7\nsamples = 13\nvalue = 19.7"] ;
2 -> 3 ;
4 [label="year <= 1968.5\nsquared_error = 0.2\nsamples = 3\nvalue = 1.4"] ;
3 -> 4 ;
5 [label="squared_error = 0.0\nsamples = 1\nvalue = 2.0"] ;
4 -> 5 ;
6 [label="squared_error = 0.0\nsamples = 2\nvalue = 1.0"] ;
4 -> 6 ;
7 [label="total <= 5484.0\nsquared_error = 131.7\nsamples = 10\nvalue = 25.4"] ;
3 -> 7 ;
8 [label="squared_error = 0.0\nsamples = 1\nvalue = 42.0"] ;
7 -> 8 ;
9 [label="year <= 1976.0\nsquared_error = 120.9\nsamples = 9\nvalue = 24.3"] ;
7 -> 9 ;
10 [label="year <= 1973.5\nsquared_error = 285.2\nsamples = 2\nvalue = 32.8"] ;
9 -> 10 ;
11 [label="squared_error = 0.0\nsamples = 1\nvalue = 23.0"] ;
10 -> 11 ;
12 [label="squared_error = 0.0\nsamples = 1\nvalue = 62.0"] ;
10 -> 12 ;
13 [label="year <= 1983.0\nsquared_error = 25.4\nsamples = 7\nvalue = 21.2"] ;
9 -> 13 ;
14 [label="total <= 5972.0\nsquared_error = 24.0\nsamples = 3\nvalue = 17.0"] ;
13 -> 14 ;
15 [label="total <= 5807.0\nsquared_error = 3.6\nsamples = 2\nvalue = 14.3"] ;
14 -> 15 ;
16 [label="squared_error = 0.0\nsamples = 1\nvalue = 13.0"] ;
15 -> 16 ;
17 [label="squared_error = 0.0\nsamples = 1\nvalue = 17.0"] ;
15 -> 17 ;
18 [label="squared_error = 0.0\nsamples = 1\nvalue = 25.0"] ;
14 -> 18 ;
19 [label="total <= 5527.0\nsquared_error = 10.5\nsamples = 4\nvalue = 23.6"] ;
13 -> 19 ;
20 [label="squared_error = 0.0\nsamples = 1\nvalue = 31.0"] ;
19 -> 20 ;
21 [label="total <= 5706.5\nsquared_error = 1.6\nsamples = 3\nvalue = 22.3"] ;
19 -> 21 ;
22 [label="squared_error = 0.0\nsamples = 1\nvalue = 24.0"] ;
21 -> 22 ;
23 [label="total <= 5925.0\nsquared_error = 0.2\nsamples = 2\nvalue = 21.5"] ;
21 -> 23 ;
24 [label="squared_error = 0.0\nsamples = 1\nvalue = 22.0"] ;
23 -> 24 ;
25 [label="squared_error = 0.0\nsamples = 1\nvalue = 21.0"] ;
23 -> 25 ;
26 [label="squared_error = 0.0\nsamples = 1\nvalue = 95.0"] ;
2 -> 26 ;
27 [label="year <= 2005.0\nsquared_error = 6845.3\nsamples = 5\nvalue = 318.9"] ;
1 -> 27 ;
28 [label="year <= 2003.5\nsquared_error = 1110.8\nsamples = 3\nvalue = 254.5"] ;
27 -> 28 ;
29 [label="year <= 2002.0\nsquared_error = 361.0\nsamples = 2\nvalue = 224.0"] ;
28 -> 29 ;
30 [label="squared_error = 0.0\nsamples = 1\nvalue = 205.0"] ;
29 -> 30 ;
31 [label="squared_error = 0.0\nsamples = 1\nvalue = 243.0"] ;
29 -> 31 ;
32 [label="squared_error = 0.0\nsamples = 1\nvalue = 285.0"] ;
28 -> 32 ;
33 [label="year <= 2006.5\nsquared_error = 1605.6\nsamples = 2\nvalue = 404.7"] ;
27 -> 33 ;
34 [label="squared_error = 0.0\nsamples = 1\nvalue = 348.0"] ;
33 -> 34 ;
35 [label="squared_error = 0.0\nsamples = 1\nvalue = 433.0"] ;
33 -> 35 ;
36 [label="year <= 2009.5\nsquared_error = 20537.3\nsamples = 7\nvalue = 947.5"] ;
0 -> 36 [labeldistance=2.5, labelangle=-45, headlabel="False"] ;
37 [label="year <= 2008.5\nsquared_error = 0.2\nsamples = 2\nvalue = 713.5"] ;
36 -> 37 ;
38 [label="squared_error = 0.0\nsamples = 1\nvalue = 714.0"] ;
37 -> 38 ;
39 [label="squared_error = 0.0\nsamples = 1\nvalue = 713.0"] ;
37 -> 39 ;
40 [label="total <= 7133.5\nsquared_error = 10234.9\nsamples = 5\nvalue = 999.4"] ;
36 -> 40 ;
41 [label="squared_error = 0.0\nsamples = 1\nvalue = 905.0"] ;
40 -> 41 ;
42 [label="year <= 2016.5\nsquared_error = 8662.6\nsamples = 4\nvalue = 1046.7"] ;
40 -> 42 ;
43 [label="total <= 7448.0\nsquared_error = 624.2\nsamples = 2\nvalue = 1137.7"] ;
42 -> 43 ;
44 [label="squared_error = 0.0\nsamples = 1\nvalue = 1173.0"] ;
43 -> 44 ;
45 [label="squared_error = 0.0\nsamples = 1\nvalue = 1120.0"] ;
43 -> 45 ;
46 [label="total <= 7637.0\nsquared_error = 138.9\nsamples = 2\nvalue = 955.7"] ;
42 -> 46 ;
47 [label="squared_error = 0.0\nsamples = 1\nvalue = 939.0"] ;
46 -> 47 ;
48 [label="squared_error = 0.0\nsamples = 1\nvalue = 964.0"] ;
46 -> 48 ;
}